s,-0.5355612,0.6033296,-0.97097677,-0.92906225,-0.40028477,-0.19816542,0.20573795,-0.41040382,-0.74372935,-1.065911,-1.2531071,0.43700713,-0.14350201,-0.15943332,0.89584184,-0.88983387,-0.30520615,0.27741918,-1.4915603,0.104562,0.11149846,0.32270405,0.76026255,-2.2937582,-0.781191,0.9328675,0.031881053,0.5744703,-1.4869243,-1.6265149,-0.0036772885,0.48481312
A,0.42294106,0.13162866,-0.461024,-0.45051968,-0.6549194,0.1426456,-0.8778497,-1.0019099,-0.72860193,-1.2551187,0.29085892,-0.3736052,0.01208034,-0.27466777,-0.16560361,-0.47086456,-0.22264855,-0.6794071,-1.1344151,0.19316357,0.89483005,0.60658777,1.4786189,-1.236462,-1.4284484,0.3494032,-0.073477656,-0.66747904,-0.38256785,0.01077999,-1.3015375,0.25592783
C,-0.7233515,0.59477425,0.1298167,-0.85357827,-0.75850207,0.0016016173,-0.056275316,-1.4098254,-1.6177524,-0.5408432,1.0650486,-0.64215785,0.23107456,-1.727852,-0.65963876,-0.9030333,1.3910465,1.5704513,1.1356695,-1.1502942,0.34156117,0.92549866,-1.3492538,-1.2077817,-0.73230094,-1.3973854,-0.44498146,0.21726497,0.50349313,1.5281212,-1.3763686,0.96527374
D,1.651755,0.053704906,-0.36877012,-0.9936091,0.70414436,0.8790401,0.5217944,0.4552038,-0.03845985,-1.1213881,0.636639,-1.1451749,-1.1156082,0.44911873,-0.79661137,0.49280202,-0.6805248,-0.28652754,-0.46101546,1.7293321,-1.1111975,-1.5588847,1.1416984,-0.30493364,0.37285703,0.4812922,-0.9374651,0.07249512,-2.372979,-0.2797698,0.47603327,0.46797207
E,0.45392016,-0.12598465,0.2093033,0.9363119,0.57161355,-0.3083769,0.25188082,-0.16793604,-0.4742424,-0.6376071,-0.43911308,-1.9312297,-1.8624381,-0.3476095,-0.9060544,-1.5948114,-0.59875166,-0.90297997,-0.24265522,-0.18165122,0.175563,-0.3889109,0.15161246,-2.1013064,1.7422122,-0.052446637,-0.32219088,0.072442494,0.48584393,-1.1916519,-0.041676752,0.6124509
F,-1.1767597,0.12054212,-1.0836805,-0.59758383,2.7029865,0.81721985,-0.15766533,1.7711189,-0.39357242,-0.8793061,-0.2172589,0.07399108,0.8564481,0.99578524,-0.40879244,0.86639833,0.5942477,0.6394411,0.3853349,1.5201048,-0.6969799,-0.11981795,0.22102417,0.46794498,0.9169773,-0.68809944,-1.0148547,-0.92366093,-0.5999209,0.14948621,0.24657162,-0.122529656
G,1.1975319,-0.015388884,-0.07410301,-0.38575253,1.2120827,-0.11535121,0.42377397,1.8705199,0.14702186,-1.0978665,0.5877181,0.05024836,0.10531601,-1.2206253,0.086460344,-0.7142569,-0.5957343,-1.0544103,-1.3671706,-0.8294057,1.2317731,-0.4790183,0.809557,1.4654679,-0.60284895,0.56499344,-0.2052028,-1.4657124,-0.66835016,-1.0455179,1.2512585,0.78690237
H,-1.3508157,-0.46595275,0.3421119,0.9523444,-0.07168042,-0.98615193,1.2058932,-0.32664198,0.5023565,-0.9582732,-0.5421191,0.9121019,0.4765468,-0.17426977,0.38055497,-1.0987489,-0.25794047,1.3857886,-0.76415426,-1.4990538,1.0302166,-1.0683395,1.7629228,-0.18329374,-1.7143102,0.53834826,0.35726866,-0.5437741,0.76074004,0.28248078,0.014722566,1.7169087
I,-1.9658617,-0.24177293,1.4154681,0.0018145647,-0.7608247,0.7417544,-0.54102474,1.6899554,-1.8098061,-0.09831968,-1.1905378,-0.49085358,1.2571759,-0.6678166,0.18546087,-0.65358907,0.4028602,0.17750996,2.451636,0.5145802,0.22258367,0.56876844,-0.11953147,-0.46027502,0.4548468,-0.5153236,-0.53156465,0.61317456,0.3266292,1.5419433,-0.93361247,0.4309208
K,0.24440539,-1.8862883,0.24640048,-0.12459227,0.5974799,1.0082014,-0.19532801,0.9996125,0.6464866,-0.7874847,0.6421502,-1.6020039,-1.1694068,0.5548394,-0.8764104,1.169303,-0.57337445,0.40246224,2.6931472,1.0653458,0.44741842,-0.5410085,-0.58373266,-0.96222156,-1.2569153,1.1563326,-1.6211395,0.1176179,0.5611461,-1.049831,0.620374,0.5005107
L,-1.1595924,0.049711052,-0.96515167,0.52351695,0.21210892,0.027845014,0.6310621,-0.9199259,-0.77236307,-4.258355,1.1279386,1.7855501,-0.94363636,2.7862425,-0.0384974,-0.51408976,0.8663643,1.5226806,1.1730274,1.9843942,-1.7509487,0.70345193,1.8945056,1.7669632,1.0503246,0.06403794,0.15266202,1.8995265,2.1176207,0.33508742,-0.028468985,0.43797496
M,-1.1095624,1.4320213,0.31822917,0.6994292,0.372351,1.4002745,-1.0440612,-3.2005045,1.2436976,1.3252147,0.41248152,-0.75329953,-0.39336973,-0.42563617,-0.1653684,0.77639204,1.2054347,0.2400506,-1.0898061,2.1997757,1.5025805,1.0977393,-1.441064,-0.154576,-0.8977366,0.030679747,-0.8239312,-1.4474779,1.0592992,-0.88984126,0.574147,-1.0636548
N,1.8238914,0.17617358,0.7631268,0.617634,1.4860766,0.06956329,-1.1082643,1.2210175,0.45405927,0.5077406,-1.7396808,1.7698221,-0.18798389,-0.22653532,-0.36793166,0.83237106,0.2613877,0.84660566,-0.05070091,0.3282812,-1.4148098,-0.51158476,1.2092104,-0.48229873,0.5828296,0.38595283,1.0012765,0.3819505,0.394015,0.29033607,1.5234189,1.6755618
P,0.5133082,0.67382324,0.4420598,0.010559996,1.9720194,-0.07107087,-1.0596126,0.013936109,0.6037672,0.54612404,0.33634478,2.1609206,1.7519,-0.5151385,-0.39661452,-1.1888711,0.917476,2.1809142,-0.80945534,0.43083802,0.58915216,-0.45737994,0.48603,-1.0827117,-2.583886,0.62734944,-0.7540328,-0.40294558,-0.54586345,1.4205704,0.69499564,-0.37552252
Q,3.5185695,2.0548465,0.7774631,-0.9903726,-0.19120277,-0.86938053,0.42522717,-0.7047252,-0.19900194,-0.101608485,-0.4679685,0.07762264,2.0517542,-1.5868922,0.1860337,1.1660479,0.18965086,1.3872706,-0.6410489,-0.638249,0.11709604,0.022544945,0.068457514,-1.1053365,-0.45618168,1.7889315,0.68653685,0.9213986,0.64428276,1.5386289,-0.44918668,0.3239146
R,-0.49395958,0.80700034,-0.93796176,-0.11420334,-1.2387688,0.04154574,0.7683744,-0.18709923,0.04414645,-1.2085011,0.5321486,0.9785952,-0.56919026,0.44648713,0.58871305,-0.21972305,0.50151473,0.11767761,-0.08379186,-0.7631387,1.047261,1.2862302,-2.0764089,-1.0992839,-0.6186533,0.92750627,0.06874967,-0.34061372,1.1707276,-0.45778093,0.7970881,-0.50672156
S,-0.20136929,1.0461552,-0.44102776,0.74662447,0.216122,0.7484915,-0.504384,0.62785155,0.14028448,-0.7943624,-0.28314888,0.4826257,-0.09558839,0.89402556,1.560873,-0.92575437,1.0612833,0.3933328,0.19672035,0.40430462,0.73254085,0.33539453,-0.22801776,0.910574,0.23118614,-0.49946582,-0.59896386,-0.75125605,-2.0445504,-0.7175637,1.2543501,0.49621078
T,-0.72992826,-0.07526949,-0.21489084,0.14573155,-0.0918984,0.8821837,1.4909618,0.6179079,0.098797254,0.068632685,-0.14437866,-2.07348,1.3818308,-1.0983202,-1.1306143,0.058743197,0.1300149,-0.52082807,-2.2674756,0.212133,-0.13820337,1.1664735,-0.6719917,-1.2306035,-1.0417205,0.2831465,-0.102913454,-0.20619054,0.87811834,-1.8378159,0.79685825,0.67485356
V,-0.030470138,-0.884913,-0.62093145,0.16665375,-0.5316855,1.1866765,0.0035759255,0.11553415,1.0906211,1.1563432,-0.91118956,-0.16086096,-0.23222879,0.21233276,0.55268836,0.58814555,-0.39644277,1.2615644,0.22925037,-1.0180709,0.737924,0.29109806,0.012539898,-1.5524496,-0.25794244,-0.39804795,1.0745347,-0.77668315,0.45463684,1.1411464,-0.5258896,1.1907978
W,-0.21361628,0.7995285,-2.0928373,-0.92680866,0.8721408,1.5497824,0.5856639,0.07301411,-0.53714746,-0.45107502,0.5156808,-0.2599744,0.6590444,0.19184011,-0.7297027,-1.2480804,-1.5511073,0.6385318,0.19776955,-0.28916824,-1.3136222,-1.533156,-1.0489231,1.0122715,0.40142798,-0.5287613,-0.46822023,-1.6248842,-1.0228366,0.6115768,0.3072575,-0.38747072
Y,-0.36604282,0.44210824,0.6158098,0.027400753,-0.67025244,0.062179223,0.21823978,-0.23414163,0.53593105,0.2847675,-0.19486964,2.0144982,0.6926577,-1.3249345,-0.5123442,2.5768144,-0.41590366,-1.3845848,-0.46912447,1.0812311,-0.34896892,0.306527,0.48372254,-0.8496911,0.61405873,0.822479,-1.1037872,0.25119388,0.9809532,-0.9165157,-0.4948448,0.29240862
e,1.6137631,0.50597596,0.28454503,-0.1638918,-0.61391217,-0.034809362,0.30679432,-1.1094007,0.9165024,-1.5943269,0.17971215,0.701509,0.6630338,0.30395058,-0.05259217,-0.6183097,-0.4882982,-0.4119713,-3.0701804,0.65864754,-1.2734559,0.3456846,1.2030417,-0.30511844,2.1684382,0.7496975,-1.126825,0.18449208,0.099446155,-0.28209516,0.11303461,-0.3322004
 ,0,0,0,0,0,0,0,0,0,0,0,0,0,0,0,0,0,0,0,0,0,0,0,0,0,0,0,0,0,0,0,0