s,-0.34918937,0.96192956,0.13950688,0.4647892,0.628173,-1.9158719,-0.07598205,0.046781104,-0.6886077,1.2982941,0.13308023,-0.920745,1.5748854,-0.6507734,-0.3648541,0.85994726,0.5158922,-0.42864656,0.24076541,1.231282,-0.49691147,0.34463406,-0.054874282,-0.121390104,-1.426805,0.3103265,0.72506714,2.1992826,0.3037935,-0.0114141535,-0.29526383,0.5702849
A,0.585728,0.5716391,-0.32460156,-1.5041045,0.30321142,0.36836898,1.1730008,-0.6607438,1.5907272,-1.0245298,-0.7084923,-0.4998026,0.29235476,-0.6108565,-0.27641878,-0.41545206,-1.526903,0.49309632,-0.5596904,-2.0350292,0.9854517,-0.08726092,0.49941546,-0.23775971,-0.26461706,-2.0675597,-1.1688197,-0.43202043,-1.3531048,0.23233224,-0.043258186,0.57415026
C,1.3929938,1.5893159,0.2929047,-0.77211344,-1.320452,0.34076744,0.8112526,-0.15781476,-0.028195241,-0.0013203578,-0.091798,0.47588304,-0.33007997,-0.6987119,0.55052286,0.70686543,0.12032069,0.46363038,0.6150226,-0.62475413,0.0031716202,-0.46804696,-0.13548222,0.64890975,1.235942,-0.13253014,0.4057612,0.21047504,1.1466478,-0.54998726,-0.40797976,-0.46055302
D,0.16581888,0.11261238,0.7333388,-0.6188339,-1.7980374,0.36966705,1.6707984,-0.4628115,-1.5353366,0.17444544,1.8255078,0.59562576,-0.1423935,-0.42575097,0.69816583,0.9401859,0.5730565,-0.2578567,-0.35983208,-0.26709184,-0.91786295,0.97415435,0.83849573,-0.16404837,-0.5064069,-0.71405274,0.1805876,0.35139272,-0.7148551,-0.33135343,0.17054245,-1.7976594
E,2.323101,0.4475869,-0.100985125,-0.18357298,-0.09599627,0.57960653,0.43811795,-0.62741274,-0.154678,0.041547306,0.4151095,-0.03768722,0.8924438,0.1821918,0.290491,-0.73277074,1.203906,-0.8248269,-0.94242436,-0.5968197,0.56571287,-0.041909114,1.9215488,0.18609552,0.88156086,0.037775297,0.1537022,0.07755864,0.17445213,0.7175439,1.4749417,0.034657877
F,1.4036049,-0.42786032,0.3194021,-0.5461341,-0.2783424,-0.4451266,1.3502659,0.10024778,-0.90887934,-0.82183933,-0.12812576,-0.5017822,-0.8309331,-0.36351615,-0.64775443,-0.0658732,1.3872602,0.4553897,-0.21887842,-0.5299888,-0.23899862,-0.35778594,0.73799115,-0.5374444,1.038644,-0.46056113,-0.31269807,-0.6159325,0.012457689,0.34526113,0.46821877,0.43400204
G,-0.69475347,-0.08919085,0.946929,-0.94018394,0.487428,0.07986901,0.25922015,0.53459316,-0.32715845,-0.7079109,0.0631534,-1.0520386,0.4688185,0.011879709,1.1478456,0.28124198,-0.37281686,0.8180093,-1.3452333,0.74183923,-0.50413877,-0.66292137,-0.4817684,-0.44283476,-0.5939296,-1.581858,-0.49431336,-0.26800206,-0.15509447,0.4306486,0.6224889,-0.090180136
H,-0.31198555,0.39924353,0.602712,2.5175517,-1.1687822,-1.6616893,-0.60280955,-1.7206451,1.8504678,-0.6966764,-0.5073258,-1.6678367,0.014044784,-1.0458813,-0.8655004,1.4275037,-0.8146123,0.12126417,-1.3765358,0.8523672,-1.3734287,1.216807,-0.6906991,0.03437749,-1.0365946,-1.4693774,-1.2810396,0.013338043,0.5713389,-0.3514322,0.34995705,0.973851
I,-0.3120909,0.052758254,-0.7452899,-0.4206136,-0.66872793,-0.108576566,0.88461006,0.5813658,0.5866594,1.3241303,-0.60230434,-0.76720554,0.71018434,0.60005707,0.49269572,0.37151963,-0.94484776,-0.4110062,-1.1937898,0.31392714,-1.3027934,-1.4234242,-2.5748622,1.0925018,1.6713479,0.74927336,-2.080423,-0.62761706,-0.3249592,-0.025378097,0.8889222,0.9493454
K,1.0256414,-0.76651645,-0.8425956,-1.0667487,0.37801048,-0.027221143,0.31943968,-1.5146866,0.9726473,0.26265553,0.56225955,0.09376427,0.012420444,-0.9597175,0.88094866,0.5679544,-0.5577203,-0.48173395,-0.49910903,1.275974,0.39612633,-1.4928243,0.1793094,-0.7684386,1.3006948,0.36646047,-0.32549834,0.79069966,-1.1699784,-1.1800722,-0.6022124,-0.2353926
L,-0.098011866,1.288312,-1.1084839,-0.6441989,-1.008355,2.239734,-0.1334964,0.67299664,0.3500631,0.7212234,0.36536944,0.49327675,-0.1792614,0.15022257,0.20049143,-0.5561968,-0.31523672,0.96464795,-0.80173975,0.52774847,-0.096329704,-1.7007221,-0.98162216,1.4149774,-1.6119384,-1.3985652,-1.3254387,1.639406,1.1299053,-0.964882,-0.48717806,0.18602026
M,0.45384145,0.63176066,-0.7582424,0.29787317,1.3534184,0.054194905,0.30625448,0.8809971,-1.5383202,-0.13730304,-0.79636157,0.7265719,0.032053668,0.96827793,0.35460714,-0.88841534,0.5203069,-1.1536899,-1.6889161,-0.60070825,1.2128613,-1.5483751,0.36357942,-0.6540416,0.8446269,0.43043718,0.13116014,1.2445029,-0.081014425,0.7291563,0.7763253,-0.4483856
N,0.18239996,-0.50521356,1.0026883,-1.2026974,0.7617474,1.4463208,0.0864966,1.2254728,-0.021408046,-1.5527946,-0.8355331,-1.1859609,0.73933756,-0.53638524,0.36169106,-1.2523206,0.5120083,1.6245416,-0.20724863,-0.91525215,0.05624025,-1.2632979,0.27532184,-0.4629787,-0.35129955,-1.0706556,-1.8015274,-0.024723554,-1.0265237,-0.5445982,0.18759769,-0.052369814
P,0.9292205,-0.0030211527,1.7882986,-0.024557382,-0.38402104,0.0161003,1.0678173,-1.3134825,0.6774361,-0.41767436,-0.25875154,-1.505078,-1.1515948,0.8081178,-1.220875,0.22780374,1.0223473,-0.22640002,-2.1749558,-0.12881263,1.3134241,-0.014835795,0.15553468,-0.74041384,-0.14874409,-0.54491687,-0.42978904,-1.2716377,-0.08881086,1.6687549,0.84443754,-0.39321056
Q,0.40033853,-0.56236756,-1.5926225,0.81745595,-0.12626934,-0.3195873,0.34853113,0.061096113,-0.8224218,-0.026559355,1.1311237,0.31408608,0.22939141,0.04988476,0.60622084,-1.0631275,-0.3259844,0.41410798,0.55576515,1.1582861,0.6506567,-0.36911768,1.0849706,-0.01907672,-0.57342565,0.4849174,-0.516208,1.4261763,0.9779634,0.290217,-0.2053007,0.65331167
R,0.446529,0.48706812,0.04997888,0.6005218,-1.0407637,-0.9996771,0.5471615,-1.3644712,0.9594184,-0.3200766,0.35644713,-0.020486847,-0.3841418,-0.6408549,0.4645362,-0.17375381,0.13224173,0.9992931,0.7453328,-0.5138674,-0.33749998,0.37865895,1.4109021,-0.6827673,-0.18941754,0.97106934,-0.4042602,-0.6859927,-1.4868618,-0.15160511,0.22646695,-1.4497494
S,0.21498747,0.54668695,-0.23605663,-0.7341633,0.2708399,3.3275945,-0.36766738,-0.5987756,-0.4508971,1.1597565,0.653803,-2.0486774,1.3823329,-0.6359047,0.8346784,-0.38222864,1.4132205,-0.23961416,-0.64240426,1.126605,0.21665372,0.06649569,0.29633585,-0.16622712,0.18705016,-0.43053418,-0.41138902,0.94992685,-0.43559796,-1.1616331,1.5822942,1.3356086
T,-0.29787633,-1.0200008,-0.56006426,0.021256875,1.013319,-0.7090928,0.11503477,-0.08385637,-0.38792634,-0.1194394,1.2199848,-2.1337862,-0.55999625,0.6714467,1.209401,0.51990205,0.019987479,0.17405158,-0.98773503,1.0912513,-0.027922006,-0.36998424,-0.67052424,0.011812681,1.0839727,-0.01565327,-1.2201394,0.78840005,0.3499711,0.84879845,0.85931474,0.276784
V,0.5243864,0.42128918,0.37872174,1.0866969,-0.56267077,1.7321925,-0.648799,1.607398,-0.5628202,-0.6344611,0.61885005,-0.09843692,-0.89765096,1.4646609,0.45640567,-1.424705,-0.8131852,-0.76560223,-1.6733826,-0.48639414,-0.15724789,0.20182982,0.73576933,-0.19948703,-0.44550067,-0.27580807,0.13294199,0.93841225,-0.6924282,1.4669164,0.2107211,-1.6070299
W,-1.0450646,-1.2345761,-1.3093845,1.157885,-1.024345,-0.025655845,-0.20075895,-1.228244,0.72757447,1.2225939,0.0406547,0.31037626,-0.7221996,-0.29107812,0.40383965,-1.1196334,1.0438396,-1.2876693,0.36322346,0.82408804,0.8744011,1.5392916,0.015611431,-1.2304363,1.4374359,-0.13484143,-1.4819658,0.84086555,-0.67333984,-0.39835152,1.074974,-0.67036676
Y,0.23199323,-1.7236823,-0.16789688,-1.3290466,-1.4208254,0.542166,0.9806777,-0.73608285,-0.0058709127,-0.18215895,1.3774657,0.8003516,-0.7876609,0.31620914,-1.1477361,1.4817929,0.88180846,-0.5819053,0.56209594,0.37661946,0.027970096,0.06347554,0.56184155,2.0346937,0.67713386,-0.53959954,0.19999701,-0.65433073,1.9051505,0.021012377,-5.9478876e-05,-0.43576118
e,-1.5173633,0.19952352,0.44754753,1.0002494,0.28355646,0.26871833,-0.42086935,-0.52919704,0.45569295,0.86450344,-0.7302561,-1.938854,-1.4293119,-0.27123722,0.82944304,0.79320425,-0.0800034,0.20065281,-0.14205396,0.0016331662,0.78440654,0.56114125,1.8355727,2.1052217,-2.5354552,0.12170342,-0.6458516,-0.9264029,-0.58119345,0.8126998,-0.4058269,0.041841477
 ,0,0,0,0,0,0,0,0,0,0,0,0,0,0,0,0,0,0,0,0,0,0,0,0,0,0,0,0,0,0,0,0